0.02573845349252224,-0.31976208090782166,0.07374946773052216,-0.06310679763555527,-0.07961869239807129,0.11615391820669174,-0.06938134133815765,-0.054875146597623825,-0.09505713731050491,-0.0738159716129303,0.25778502225875854,0.6647403836250305,-0.33537790179252625,-0.3348308503627777,-0.07149075716733932,-0.06673742085695267,-0.07107411324977875,-0.06693173199892044,-0.05958001688122749,0.11464524269104004,0.11729460954666138,0.11215358972549438,0.11049111932516098,0.11909370869398117,0.11241358518600464,0.1084747463464737,-0.0022754843812435865,0.03850395232439041,-0.008698524907231331,0.1666656881570816,-0.021278060972690582,-0.010046755895018578,-0.02039213292300701,-0.008697863668203354,0.20253095030784607,-0.01812535710632801,0.03712114319205284,-0.16567426919937134,0.8318490386009216,-0.16608993709087372,0.06023993715643883,0.06131342798471451,0.06104235351085663,0.060049377381801605,0.05599738284945488,-0.03341935947537422,-0.032769761979579926,-0.030382288619875908,-0.029505165293812752,-0.03507452830672264,-0.03182390332221985,-0.029843907803297043,-0.02346300706267357,0.2812517583370209,-0.06954186409711838,-0.10804976522922516,0.0964057594537735,-0.11059795320034027,0.08528254181146622,0.059082020074129105,-0.11196472495794296,0.08745037019252777,0.027731576934456825,-0.1764284074306488,-0.17383363842964172,0.8235585689544678,0.01819501258432865,0.012368218973279,0.016976013779640198,0.013826563023030758,0.010526809841394424,-0.07428175210952759,-0.07758059352636337,-0.07482708990573883,0.048553094267845154,0.045519839972257614,0.04894934222102165,0.05090818554162979